input: 14
hidden: [32, 16, 4, 16, 32]
output: 14
Weight 0:
0.185291 0.284886 0.815754 -0.344865 1.159468 0.109241 -0.117826 0.235136 -0.137347 -0.126609 -0.214721 -0.206326 -0.637469 -0.617564 -0.303844 0.101309 -0.273636 0.799467 0.240885 -0.253306 0.683081 -0.081771 -0.084758 0.243167 -0.028130 0.037247 0.254219 -0.431323 -0.040108 -0.354460 0.132320 -0.533465
0.595326 -0.223636 -0.126294 -0.043561 -0.364957 0.087853 0.419286 -0.124713 -0.160495 0.243494 0.220139 0.047044 0.459847 0.156248 0.670600 -0.114356 -0.431827 0.526245 -0.666629 -0.319495 -0.372290 0.023190 -0.028775 0.458349 0.025401 -0.217057 -0.106214 -0.354572 0.249536 0.562109 0.078906 -0.006536
0.176001 -0.171897 -0.053104 -0.062895 0.265777 -0.145817 -0.800322 -0.428565 0.872360 -0.061713 0.188930 -0.031541 -0.028360 -0.421825 0.643822 -0.282477 -0.292058 0.144998 0.440665 -0.103158 -0.707989 -0.696015 0.583794 0.027985 0.502637 0.088653 -0.322061 0.147120 0.100973 0.188632 0.031075 -0.181139
0.433115 -0.023803 0.088599 -0.369801 -0.408035 -0.304791 -0.409633 -0.815781 -0.237246 0.576037 -0.158551 -0.476578 0.268137 -0.045642 -0.141515 -0.454507 0.003186 0.013471 0.115123 0.027357 -0.053799 0.000740 -0.040500 -0.557863 0.739826 0.227744 0.054808 -0.086616 -0.063661 0.110198 0.530705 -0.260070
0.102609 -0.611666 0.307522 0.129508 -0.039191 -0.817569 -0.216406 -0.354833 -0.345379 -0.701780 -0.138384 0.688275 0.268133 0.020229 0.207672 0.828667 -0.378281 -0.295370 -0.184134 -0.534902 0.121787 -0.116198 0.235463 0.314956 0.498766 0.273150 -0.142363 -0.193038 -0.374056 0.017839 0.135280 -0.563429
0.437359 0.010068 -0.143370 -0.383472 0.531583 0.192193 0.326248 -0.041047 0.610556 0.311434 0.500686 0.440017 -0.235496 0.076931 0.504403 0.184354 -0.373034 0.034017 0.308283 -0.551694 -0.366284 -0.537057 0.180524 0.589174 -0.767230 0.079143 -0.240269 0.646276 0.082628 0.323263 0.526595 0.066468
-0.681035 -0.044979 0.079404 -0.443690 -0.713233 -0.522587 0.502798 -0.441432 1.060858 0.541000 0.346205 -0.584253 0.531615 -0.190268 -0.692126 0.097142 0.171460 -0.301913 -0.227163 -0.067585 -0.077266 0.283016 -0.103748 0.621565 0.119155 -0.627344 0.436276 -0.317810 0.431549 0.129106 -0.308999 -0.157935
0.172426 0.102644 0.360765 0.163417 -0.000254 0.039204 -0.071262 0.199243 0.158668 0.097094 0.870094 0.143513 0.465012 -0.245774 0.003871 -0.809063 0.033340 -0.231464 -0.267055 0.081447 -0.152285 -0.583388 -0.077406 1.340582 0.159639 0.105333 -0.427505 -0.469339 -0.353850 0.105818 -0.461465 0.540220
-0.439121 0.305102 0.101572 0.568180 -0.414189 1.159693 0.071507 0.452475 0.148982 -0.401516 -0.291303 0.009314 -0.291956 0.057413 0.333393 0.484819 0.630507 -0.017279 -0.159496 -0.654332 -0.891402 -0.036763 0.472347 0.045926 0.158361 -0.386516 -0.169143 0.441416 0.166856 -0.175897 0.252559 0.046156
0.410185 0.184003 -0.123683 -0.084393 -0.518613 -0.611753 -0.167648 0.511553 0.161952 -0.110179 0.249055 0.421563 -0.230602 -0.227904 1.206263 -0.336913 -0.208959 -0.134981 -0.377234 -0.728106 0.033966 -0.237402 0.167402 -0.315627 0.475997 -0.020352 -0.317833 -0.258379 -0.095670 0.517245 -0.220543 -0.608594
0.657820 -0.681819 0.888961 -0.695824 -0.148284 -0.165346 0.331819 0.264164 0.735922 -0.573881 -0.651937 0.396685 0.859085 0.460700 0.278398 0.448476 -0.509175 -0.087655 0.011972 -0.039370 0.200245 -0.009603 -0.167478 -0.434889 -0.054782 -0.489576 -0.035299 0.123384 -0.249346 0.282512 0.389581 -0.189660
-0.144311 0.277351 -0.381293 -0.418917 -0.133462 -0.006614 -0.207702 0.216007 -0.514255 0.170094 -0.203984 0.600507 0.344693 0.047994 -0.015581 -0.194766 -1.008355 0.042073 0.429804 -0.356293 -0.311308 0.039308 -0.478864 -0.276172 -0.166552 0.046870 0.779230 -0.018159 0.144126 -0.028652 0.113063 0.057110
0.365571 0.637502 -0.056672 -0.137697 0.896949 0.643795 0.132810 0.475983 0.616177 -0.081847 0.370326 0.068523 0.079372 0.308076 0.668399 0.213409 0.358431 0.355898 0.508200 0.233204 0.103353 -0.114447 0.264490 -0.129985 0.051878 -0.373027 0.817035 -0.397064 0.229224 -0.277491 -0.502268 0.199093
0.586878 -0.271657 0.242024 0.701190 0.887222 -0.083657 0.005959 0.068588 0.299146 -0.040453 0.271936 0.003815 -0.259430 0.195277 -0.190808 -0.348853 0.027608 -0.281022 -0.109401 0.393278 -0.199663 -0.429833 0.247097 0.440022 -0.140060 0.533590 0.240923 0.570256 -0.335880 -0.657752 0.222249 0.020342

Weight 1:
0.072676 0.120510 0.403793 -0.147228 0.435905 -0.114185 0.133558 0.111308 -0.184916 0.123326 -0.238616 -0.479163 0.252115 0.264941 -0.352022 -0.058683
-0.271671 0.162625 0.283612 -0.216264 -0.542835 0.125401 0.151726 -0.213742 -0.123442 -0.192125 0.003335 0.208444 0.103923 0.135912 -0.319265 -0.139845
0.294561 -0.300112 -0.207361 0.160111 -0.456136 -0.250165 0.196905 -0.379735 -0.190467 0.150485 -0.278866 0.213544 0.068495 -0.066306 -0.474820 0.005484
-0.392134 -0.430275 0.099149 0.068255 -0.502308 -0.070075 0.117622 0.066877 0.049472 -0.063765 0.267712 0.041518 0.282659 0.009809 -0.284721 0.043971
-0.336953 0.105928 0.476572 0.017109 -0.025388 0.224691 0.063251 0.597052 -0.009777 0.078610 0.257984 -0.365883 0.178353 -0.110879 -0.075939 0.191527
-0.173923 -0.059942 -0.036717 -0.021363 -0.173450 0.138493 -0.297746 -0.469214 -0.073803 0.133839 0.140003 0.076942 -0.084734 0.098697 -0.035011 -0.017072
-0.632756 -0.111943 -0.489796 0.530623 0.214689 0.298003 -0.129102 -0.017981 -0.323992 -0.288788 -0.066797 -0.139266 0.112993 0.097099 -0.099618 0.207628
-0.289134 -0.314187 0.126840 0.135238 0.211492 -0.361182 -0.208481 0.076150 0.081070 0.473880 -0.256579 0.533755 0.128965 0.290026 0.151543 -0.184639
-0.139548 0.000435 -0.378985 -0.406472 -0.155021 0.174674 -0.165485 -0.016348 -0.036571 0.251708 0.105908 0.213237 0.292083 -0.248225 -0.521301 -0.102169
0.282848 0.172935 -0.091748 0.481037 0.193698 -0.150851 0.290083 -0.393990 0.083610 -0.133042 -0.017123 0.150656 0.231961 0.026290 -0.055346 -0.429783
-0.390426 -0.643708 0.043355 0.231365 -0.596716 0.262858 0.346722 0.046462 0.385583 -0.010843 -0.314393 -0.082981 0.401624 -0.154596 0.104631 0.136100
0.293416 -0.466609 0.346564 -0.236089 0.378422 -0.091864 -0.090331 0.193476 0.325921 -0.118121 -0.071285 -0.152320 -0.144186 0.123231 -0.023043 0.314428
-0.173887 0.187792 0.179839 -0.069116 -0.064343 0.121286 -0.174047 -0.089547 -0.325626 -0.227863 -0.259028 -0.234833 -0.438890 -0.414240 0.216949 -0.035332
0.311031 0.261299 -0.113455 -0.230266 0.037422 -0.111425 0.158054 -0.495764 0.084857 0.396988 -0.099658 0.152968 -0.306369 -0.151537 -0.219660 0.383335
0.490292 -0.122822 0.326020 0.146100 -0.096235 0.397178 -0.145372 -0.160798 -0.256163 0.222049 -0.238368 -0.036263 -0.086658 -0.131671 -0.057063 -0.104461
0.395412 0.109686 0.023179 -0.103152 -0.314488 -0.158780 -0.006818 -0.013678 0.037958 0.365456 -0.113563 0.351941 -0.051395 0.047970 -0.025504 0.331944
-0.210490 0.198815 0.437271 -0.025876 -0.723866 -0.281821 -0.108885 0.100693 0.329311 -0.025007 -0.111162 0.165941 -0.041066 0.004587 -0.121595 0.409475
0.046544 0.293862 0.094724 0.281095 0.211997 0.209764 0.115249 -0.379669 -0.388969 -0.256961 0.293206 0.162097 -0.082935 0.363194 0.251913 0.131824
0.178728 0.147880 -0.305886 0.013511 0.135534 -0.008708 -0.179171 -0.427939 -0.202773 0.230567 0.139576 -0.396701 0.188578 -0.328798 -0.047701 0.203231
-0.081695 -0.348242 -0.651161 -0.234976 -0.109004 0.098759 -0.151305 -0.127178 -0.128513 -0.178572 0.462450 0.062591 -0.236627 -0.529184 0.031137 0.363643
0.126699 0.637836 -0.142350 0.133831 -0.376284 -0.442327 -0.046917 0.293624 0.421304 0.012935 -0.227471 -0.551426 -0.151102 -0.015693 -0.147226 -0.451731
-0.003390 -0.090833 0.112717 -0.207293 -0.098682 -0.002867 0.085190 -0.124348 -0.198406 -0.282635 0.011166 -0.104716 0.415829 -0.058103 0.025649 0.223424
0.253902 -0.119900 0.462348 0.524025 -0.093034 -0.008555 0.069649 -0.200918 -0.023536 -0.256470 -0.026444 -0.048875 0.084168 0.121330 -0.021820 0.314322
-0.245004 -0.105198 -0.182421 0.371000 -0.054675 -0.052208 0.319541 -0.385875 -0.261346 -0.036901 -0.146224 0.215635 -0.359293 0.143756 -0.251254 0.064485
0.219539 0.467268 -0.375300 0.025535 0.237590 0.016223 0.094603 -0.174037 -0.081458 -0.193822 0.150646 0.462727 0.038897 0.013938 -0.535334 -0.017259
0.141323 -0.413683 0.041520 -0.003078 -0.502574 0.103540 -0.106819 0.032838 0.079972 -0.189910 0.085349 -0.127333 0.034545 -0.163073 0.269711 0.172270
-0.086193 0.175332 -0.102270 0.055517 -0.212593 0.240314 -0.031301 -0.167164 0.057867 -0.435750 -0.252999 -0.074289 0.031737 0.027440 -0.135578 0.146236
-0.308132 -0.067378 0.267255 0.144739 0.318043 0.562722 -0.153886 0.086227 -0.202416 -0.274957 0.107525 0.006944 -0.099803 0.142280 -0.090888 -0.376214
0.169047 -0.171739 0.189282 0.090478 -0.657211 -0.074486 -0.236949 0.233276 -0.141752 0.212565 0.015496 -0.144719 0.125399 0.219155 -0.295957 -0.382337
-0.020021 -0.101301 0.121799 0.198648 -0.416072 -0.094583 -0.390640 -0.338086 -0.419716 -0.095453 -0.396094 -0.167004 -0.216722 -0.087075 -0.000671 -0.019604
-0.307303 -0.010385 -0.104503 0.116245 -0.167706 0.144787 -0.245222 -0.230641 -0.026815 -0.432148 -0.220774 0.285934 0.166580 -0.097514 0.587604 -0.042015
0.037773 0.361662 0.082847 -0.078321 0.173558 0.152003 -0.182982 -0.052802 0.035090 0.036295 -0.216200 0.073772 -0.090387 0.116862 0.221360 -0.203974

Weight 2:
-0.128753 0.064369 0.257691 -0.193821
0.015491 0.567530 0.290698 -0.077225
0.660263 0.164088 0.616537 0.407254
1.012284 0.519156 -0.158855 0.298593
-0.316855 0.324071 0.601804 -0.291626
0.264593 0.223826 0.239700 -0.408295
-0.165883 0.112754 -0.128838 -0.332476
0.340706 -0.227956 -0.011762 0.795845
0.364092 0.015054 0.141886 0.108566
-0.514353 0.118937 0.404407 -0.020757
0.264747 0.184124 0.231146 -0.366106
0.142346 0.606797 -0.007468 -0.082327
0.293766 0.325960 0.431978 -0.029362
0.188827 0.684389 -0.285719 -0.480383
0.279571 0.150540 -0.145524 -0.223514
-0.025898 0.355742 0.335585 0.091906

Weight 3:
-0.297464 -1.767695 0.309867 0.481769 -0.100160 1.645791 -0.540943 1.068268 0.542546 -0.119204 -1.113967 0.992067 0.021544 1.279686 0.068332 1.038007
-0.966961 -0.942356 -0.294786 -1.524145 0.224200 -0.541422 0.511789 -1.344717 0.818304 0.071426 0.661574 -0.112737 -1.197528 0.938479 0.551929 0.690872
0.125110 1.306508 1.773852 0.980154 -0.999390 0.176339 -0.488890 -0.933300 -0.082919 0.823533 -0.290124 -0.400583 -0.230836 1.479803 0.391152 -0.489959
1.256427 0.097502 -0.597836 -0.341287 -0.576225 -0.092924 -0.054734 0.152098 -0.375289 0.441953 1.144808 -0.410649 0.907463 0.146231 -0.096330 0.530162

Weight 4:
0.211650 0.231676 -0.220183 -0.364368 -0.744853 0.159001 -0.325677 -0.219867 -0.016239 -0.416061 0.527683 -0.089842 0.209539 0.325131 -0.630271 -0.127143 0.338008 -0.356847 0.124034 -0.302327 0.181832 -0.205050 0.037754 0.475286 0.258160 -0.277723 0.186113 0.152630 0.437361 0.066543 0.038726 0.312227
0.308876 1.192117 0.561301 0.002399 -0.029429 -0.254457 -0.529093 0.033741 -0.741064 0.710173 -0.274903 0.463568 -0.030968 0.213197 -0.444980 0.208304 0.073076 0.690302 -0.441046 -0.457226 -0.337428 -0.722437 -0.290794 -0.322742 -0.005281 0.004475 -0.525290 0.435247 0.219797 0.350145 0.436184 -0.321737
-0.131367 0.147434 0.507946 0.093533 0.004529 -0.204109 -0.470315 0.378686 -0.086835 0.062937 0.639571 -0.104443 0.065789 -0.131902 -0.446184 0.123163 -0.607512 0.508913 -0.700627 -0.069744 -0.101784 0.377683 -0.231632 -0.514503 -0.443778 -0.784298 0.314310 0.682099 0.477715 0.089525 0.164043 -0.051846
-0.147155 0.191281 -0.430707 0.191551 -0.003685 0.260151 0.186918 -0.440083 0.299863 0.571609 0.301932 -0.305595 0.336914 0.182043 -0.652796 -0.074646 0.340263 -0.025816 0.205345 -0.187343 0.151827 0.431163 0.189379 0.117197 0.045895 -0.048849 -0.257514 -0.099142 0.088672 -0.663166 0.472666 -0.147316
-0.390359 0.712845 0.089199 0.375254 -0.234947 0.410916 0.252749 -0.125482 -0.586739 0.385612 -0.057416 0.421671 -0.111896 -0.016711 0.128965 0.697449 -0.255550 -0.153157 -0.186524 -0.216158 0.007417 0.383944 -0.126902 0.679784 0.469010 -0.056479 -0.262054 0.270031 0.540286 0.390979 -0.229854 -0.031009
-0.447098 -0.459863 0.384348 0.186612 0.584667 -0.390733 0.468748 0.426818 0.770829 0.343587 -0.877351 0.209944 -0.626044 -0.749727 0.101661 0.278024 -0.531601 -0.783029 -0.135624 0.201895 0.066416 -0.147115 -0.415900 -0.083946 0.362483 0.019220 0.109287 0.648281 0.737683 0.728221 0.975456 -0.246067
-0.384634 0.195759 -0.067950 0.000348 -0.725680 0.130110 -0.151747 -0.155574 -0.031025 -0.545106 -0.201587 0.530347 0.134115 0.524300 -0.416737 0.086385 -0.338239 0.744081 -0.385875 0.369729 -0.103274 0.399162 -0.466476 -0.160010 0.231842 -0.054665 0.057291 -0.135097 -0.048715 -0.053223 -0.247937 0.748613
0.605195 0.512255 0.271803 0.351623 -0.238228 -0.369038 0.453299 0.162669 0.474718 0.176170 -0.238460 -0.396694 0.226376 0.316617 0.218722 -0.335046 0.126765 0.111842 -0.213216 0.500880 -0.005235 0.548544 0.163057 -0.018676 0.069200 -0.731586 0.016184 -0.796569 -0.149606 0.186266 -0.106716 0.579756
0.093629 0.262674 0.026061 0.134186 -0.080499 0.273712 0.429302 0.036420 0.551559 -0.034618 0.513661 0.316161 -0.024644 0.298352 0.270354 0.334783 -0.649935 -0.382812 -0.065553 0.122938 0.299523 -0.163457 0.307180 -0.708438 -0.471014 -0.220791 0.735329 0.347573 -0.098357 0.658093 -0.310693 -0.199093
0.162537 0.048379 0.189637 -0.143692 0.246638 0.071645 0.424150 0.255595 -0.197957 -0.382518 0.408451 -0.374769 0.403787 -0.071020 0.226384 -0.220804 0.236211 0.397229 -0.138412 -0.296699 -0.212701 -0.854832 -0.287202 0.470155 -0.590639 -0.230152 0.045500 0.062831 -0.259418 0.522021 0.299088 -0.287337
-0.007546 -0.205504 0.201065 0.509229 0.178089 0.587376 -0.043706 -0.591775 -0.232219 0.281852 -0.005431 0.050458 -0.135967 -0.179311 0.410327 0.656322 -0.118281 -0.230579 0.316440 0.564655 0.439241 0.670333 0.419537 0.316808 0.454972 0.133291 0.045144 0.223983 0.217311 -0.188267 0.215555 0.103400
0.234872 0.025154 0.188649 0.102361 -0.383185 -0.221659 -0.521544 0.479516 0.026573 0.146066 0.022030 -0.343229 -0.035664 0.021814 -0.617540 0.178609 0.181674 -0.129892 0.530742 0.152245 0.375011 0.118573 0.152586 -0.736867 -0.177777 -0.070925 -0.393467 -0.071801 0.352678 0.050388 -0.440031 0.214942
-0.653383 0.211467 -0.165767 0.661949 -0.512435 -0.001158 -0.396791 -0.147380 0.781584 -0.124781 -0.411499 0.227820 -0.114116 -0.118137 -0.118825 -0.120947 0.440428 -0.558894 0.029784 0.100735 0.085100 -0.406322 -0.358106 -0.097014 -0.350215 0.090696 0.414130 0.029832 -0.095145 -0.730047 0.117773 -0.257054
-0.028969 -0.253404 -0.017393 0.044351 0.143558 0.404956 -0.087222 -0.125517 0.484070 0.356551 0.494991 0.349426 0.900605 0.293520 -0.371602 0.256894 0.227898 -0.147304 -0.145721 -0.038555 -0.661778 -0.936044 0.042682 -0.126930 -0.183021 -0.183196 -0.552692 0.288202 -0.058772 0.092998 0.373815 -0.047129
0.377312 0.133890 0.354370 0.320425 0.181891 -0.007203 0.165735 -0.403118 0.167945 0.314477 -0.309984 0.467549 0.007168 0.157461 -0.421533 -0.789855 0.498614 -0.059919 0.365215 -0.047184 -0.240261 0.586749 -0.015762 0.074750 -0.052812 -0.548153 0.184613 0.167887 0.350241 -0.230016 -0.527935 0.255927
0.534332 -0.562019 -0.445360 -0.219193 -0.526634 -0.110761 0.121725 0.219569 0.229908 -0.015090 0.484550 -0.659917 -0.340341 0.036330 -0.267344 -0.054078 0.250032 -0.207787 -0.175279 -0.074352 0.387624 0.194881 0.296205 0.093469 0.071914 0.361881 -0.310797 0.442517 0.100153 0.083076 -0.145071 0.489554

Weight 5:
0.114903 -0.442388 -0.019822 -0.226311 -0.126116 -0.515933 0.079145 -0.062350 -0.045452 -0.235208 -0.175519 -0.553037 0.087784 -0.533025
-0.001578 -0.165993 0.037780 -0.007445 -0.306797 -0.003698 0.031630 -0.176253 -0.063315 0.146848 -0.198244 0.008153 -0.107840 -0.200653
-0.265420 -0.381588 0.000810 -0.204235 -0.389491 -0.186354 0.294816 0.149723 -0.854312 -0.136343 -0.000007 0.017592 -0.211124 0.290273
0.181493 -0.167589 -0.244588 0.022694 0.038404 -0.181572 0.090889 0.222913 0.230279 0.006504 0.081955 0.098288 -0.264890 -0.012511
0.001792 0.238235 0.006783 0.185198 -0.069140 0.081146 0.094783 -0.264794 0.105687 0.169750 -0.483388 -0.489276 -0.042621 0.039177
-0.333813 -0.044162 -0.136702 -0.559266 -0.019972 -0.397904 0.188181 -0.252930 -0.038001 0.143687 -0.221774 -0.124281 0.141462 0.041380
-0.121904 0.255669 -0.161130 -0.105385 -0.288763 -0.009774 -0.215758 0.212619 -0.263818 -0.031311 -0.105821 0.040200 -0.065569 -0.073142
-0.194335 -0.048482 0.203365 -0.124109 -0.343766 0.011156 0.109323 0.212297 0.012598 0.163543 0.315148 -0.159279 -0.194269 0.179417
-0.127803 -0.261690 -0.222456 -0.225279 -0.595277 -0.052394 -0.119337 -0.541310 0.044205 -0.567376 0.115468 0.039502 -0.126372 -0.433143
-0.582013 -0.316429 -0.765723 -0.642410 0.137158 0.322360 0.082298 -0.141250 -0.298899 0.048080 -0.525095 -0.058821 0.260111 -0.075723
-0.206900 0.236886 0.335624 0.312885 -0.102986 0.016510 0.436845 -0.284245 -0.379690 -0.083370 -0.403423 -0.413982 -0.354455 -0.337223
-0.343654 -0.069914 -0.034332 -0.390279 0.036349 -0.099126 -0.210609 -0.112462 -0.051479 -0.049195 0.113038 0.118770 -0.149464 -0.316782
-0.233269 -0.071885 0.202795 -0.627311 -0.043826 -0.202073 0.117354 -0.480018 0.092486 -0.165715 -0.192256 0.001377 -0.101655 -0.100550
-0.241921 -0.167682 -0.103498 0.406958 -0.035269 0.015327 0.259845 -0.118308 0.218379 -0.567245 -0.036875 0.187055 -0.038406 -0.544710
0.042725 -0.042385 -0.014627 -0.092859 0.192790 -0.079051 0.333131 0.003013 -0.183498 0.440940 -0.230639 -0.109644 0.034256 -0.398810
-0.064260 -0.273180 0.444653 -0.113512 -0.321305 -0.079810 0.075124 0.065737 -0.351953 0.221696 -0.034920 -0.280769 -0.155205 0.052347
0.047431 -0.385366 -0.563598 -0.376140 0.008078 -0.014093 -0.635001 -0.018423 -0.274961 -0.409082 -0.238708 -0.051660 -0.143479 -0.630296
0.296155 0.089145 -0.031508 -0.456510 -0.245947 -0.112860 0.221719 0.190738 0.546196 -0.056768 -0.234886 0.131764 -0.353319 0.026982
0.473526 -0.145516 -0.225292 -0.377333 -0.002372 -0.466557 -0.248920 -0.412395 0.187611 -0.129330 0.270084 -0.001032 -0.215176 0.095417
0.065287 0.196078 -0.321886 -0.041088 -0.348493 -0.077922 -0.633888 -0.362144 -0.302473 -0.139133 0.149926 -0.518249 0.058885 -0.005256
0.022458 -0.157222 0.094343 -0.085118 -0.273215 -0.166785 0.062010 -0.355332 -0.702843 0.053461 -0.279197 -0.707483 -0.099903 -0.116394
-0.421330 -0.252973 0.154655 -0.431169 -0.187661 -0.011601 -0.347399 0.357747 0.117043 0.310430 -0.098429 0.309195 -0.101734 -0.148299
-0.363334 -0.023597 -0.253596 -0.216793 -0.015626 0.316838 0.363273 0.106967 -0.107918 -0.093820 0.274292 0.055332 -0.797626 0.535574
-0.066517 -0.050253 -0.012224 -0.011202 -0.085552 -0.458806 -0.290676 0.360131 -0.248993 0.195394 0.007983 -0.629980 -0.407961 -0.256623
0.115327 -0.132419 0.114013 -0.101206 0.116729 -0.358898 -0.096054 0.002280 -0.150001 -0.082574 -0.058977 0.140335 -0.091192 -0.087879
0.044515 0.092343 -0.010677 -0.292155 0.183787 0.104269 -0.065927 0.085614 0.430514 -0.120598 -0.052162 0.032776 0.668355 0.009945
-0.249318 -0.421402 -0.180488 -0.053516 0.097666 -0.126171 0.052777 -0.059262 -0.066711 0.179762 -0.335135 0.392837 0.197453 0.170333
-0.371565 -0.211154 -0.352343 -0.287582 -0.167289 -0.267842 -0.022956 -0.184941 0.016129 -0.035630 -0.083411 -0.158210 -0.356445 -0.076793
0.099249 0.167451 -0.470741 -0.088925 -0.311970 -0.579090 0.349211 0.136609 -0.224005 -0.322011 -0.258135 -0.567079 0.036782 -0.257958
-0.187893 -0.067379 -0.648912 -0.057347 -0.047952 -0.328100 0.587234 -0.458885 -0.035591 -0.442200 -0.077731 -0.388462 0.025189 -0.035317
-0.525630 -0.092062 -0.252712 -0.093478 -0.487665 0.180669 -0.191609 -0.198940 -0.359664 -0.226086 -0.157353 -0.121218 0.165107 -0.134310
0.293382 -0.468215 0.186221 0.196263 0.208447 0.381376 -0.589524 -0.644167 -0.109942 -0.670565 -0.616855 -0.149158 -0.292096 -0.552917

Bias 0:
0.000061 -0.000080 -0.000014 0.000213 0.000491 -0.000220 -0.000092 0.000139 -0.000064 -0.000293 0.000436 0.000239 0.000371 -0.000354 0.000047 -0.000093 0.000571 -0.000721 -0.000273 -0.000184 0.000453 0.000011 0.000203 -0.000316 -0.000639 0.000264 -0.000027 0.000032 0.000436 0.000420 0.000046 -0.000168

Bias 1:
-0.001048 -0.000945 0.002438 0.001173 -0.001049 -0.001993 -0.001759 0.002664 0.000522 -0.000389 -0.001603 -0.000950 -0.000208 -0.002901 -0.000750 0.000056

Bias 2:
0.002810 -0.004450 0.001057 0.018997

Bias 3:
0.047424 0.009374 -0.010895 0.009116 0.001424 -0.003600 -0.021862 0.027061 0.004233 0.012087 0.021019 0.009965 -0.021021 0.004793 0.024540 0.013698

Bias 4:
0.091325 0.007710 0.061523 -0.031123 0.000923 0.034996 -0.015030 -0.048721 0.049490 0.047506 0.040781 0.018482 0.041272 0.031747 0.005378 -0.006555 0.101029 -0.017089 0.022795 0.023381 0.098651 -0.037380 0.015207 0.050447 0.012374 -0.063686 -0.009999 0.027618 0.049560 0.083198 0.043298 0.077784

Bias 5:
-0.184192 -0.200610 -0.194148 -0.085534 -0.112256 -0.267740 0.078072 -0.220490 -0.219144 -0.259946 -0.204873 -0.158286 -0.296264 -0.172478

